Language model created by QuickLM on Sat May 25 10:21:33 EDT 2019
Copyright (c) 1996-2010 Carnegie Mellon University and Alexander I. Rudnicky

The model is in standard ARPA format, designed by Doug Paul while he was at MITRE.

The code that was used to produce this language model is available in Open Source.
Please visit http://www.speech.cs.cmu.edu/tools/ for more information

The (fixed) discount mass is 0.5. The backoffs are computed using the ratio method.
This model based on a corpus of 50 sentences and 52 words

\data\
ngram 1=52
ngram 2=100
ngram 3=50

\1-grams:
-0.7782 </s> -0.3010
-0.7782 <s> -0.2218
-2.4771 一岁一枯荣 -0.2218
-2.4771 一枝红杏出墙来 -0.2218
-2.4771 一行白鹭上青天 -0.2218
-2.4771 不及汪伦送我情 -0.2218
-2.4771 两个黄鹂鸣翠柳 -0.2218
-2.4771 侧坐莓苔草映身 -0.2218
-2.4771 借问酒家何处有 -0.2218
-2.4771 停车坐爱枫林晚 -0.2218
-2.4771 复照青苔上 -0.2218
-2.4771 客舍青青柳色新 -0.2218
-2.4771 小叩柴扉久不开 -0.2218
-2.4771 小溪泛尽却山行 -0.2218
-2.4771 小荷才露尖尖角 -0.2218
-2.4771 应怜屐齿印苍苔 -0.2218
-2.4771 拂堤杨柳醉春烟 -0.2218
-2.4771 接天莲叶无穷碧 -0.2218
-2.4771 日出江花红胜火 -0.2218
-2.4771 早有蜻蜓立上头 -0.2218
-2.4771 映日荷花别样红 -0.2218
-2.4771 春来江水绿如蓝 -0.2218
-2.4771 春江水暖鸭先知 -0.2218
-2.4771 春种一粒粟 -0.2218
-2.4771 春色满园关不住 -0.2218
-2.4771 最是一年春好处 -0.2218
-2.4771 月落乌啼霜满天 -0.2218
-2.4771 朝露待日晞 -0.2218
-2.4771 桃花流水鳜鱼肥 -0.2218
-2.4771 桃花潭水深千尺 -0.2218
-2.4771 梅子金黄杏子肥 -0.2218
-2.4771 梅子黄时日日晴 -0.2218
-2.4771 正是河豚欲上时 -0.2218
-2.4771 江南可采莲 -0.2218
-2.4771 江枫渔火对愁眠 -0.2218
-2.4771 渭城朝雨浥轻尘 -0.2218
-2.4771 牧童遥指杏花村 -0.2218
-2.4771 离离原上草 -0.2218
-2.4771 秋收万颗子 -0.2218
-2.4771 竹外桃花三两枝 -0.2218
-2.4771 绝胜烟柳满皇都 -0.2218
-2.4771 草长莺飞二月天 -0.2218
-2.4771 莲叶何田田 -0.2218
-2.4771 蒌蒿满地芦芽短 -0.2218
-2.4771 蓬头稚子学垂钓 -0.2218
-2.4771 西塞山前白鹭飞 -0.2218
-2.4771 返景入深林 -0.2218
-2.4771 遍插茱萸少一人 -0.2218
-2.4771 遥知兄弟登高处 -0.2218
-2.4771 霜叶红于二月花 -0.2218
-2.4771 青青园中葵 -0.2218
-2.4771 麦花雪白菜花稀 -0.2218

\2-grams:
-2.0000 <s> 一岁一枯荣 0.0000
-2.0000 <s> 一枝红杏出墙来 0.0000
-2.0000 <s> 一行白鹭上青天 0.0000
-2.0000 <s> 不及汪伦送我情 0.0000
-2.0000 <s> 两个黄鹂鸣翠柳 0.0000
-2.0000 <s> 侧坐莓苔草映身 0.0000
-2.0000 <s> 借问酒家何处有 0.0000
-2.0000 <s> 停车坐爱枫林晚 0.0000
-2.0000 <s> 复照青苔上 0.0000
-2.0000 <s> 客舍青青柳色新 0.0000
-2.0000 <s> 小叩柴扉久不开 0.0000
-2.0000 <s> 小溪泛尽却山行 0.0000
-2.0000 <s> 小荷才露尖尖角 0.0000
-2.0000 <s> 应怜屐齿印苍苔 0.0000
-2.0000 <s> 拂堤杨柳醉春烟 0.0000
-2.0000 <s> 接天莲叶无穷碧 0.0000
-2.0000 <s> 日出江花红胜火 0.0000
-2.0000 <s> 早有蜻蜓立上头 0.0000
-2.0000 <s> 映日荷花别样红 0.0000
-2.0000 <s> 春来江水绿如蓝 0.0000
-2.0000 <s> 春江水暖鸭先知 0.0000
-2.0000 <s> 春种一粒粟 0.0000
-2.0000 <s> 春色满园关不住 0.0000
-2.0000 <s> 最是一年春好处 0.0000
-2.0000 <s> 月落乌啼霜满天 0.0000
-2.0000 <s> 朝露待日晞 0.0000
-2.0000 <s> 桃花流水鳜鱼肥 0.0000
-2.0000 <s> 桃花潭水深千尺 0.0000
-2.0000 <s> 梅子金黄杏子肥 0.0000
-2.0000 <s> 梅子黄时日日晴 0.0000
-2.0000 <s> 正是河豚欲上时 0.0000
-2.0000 <s> 江南可采莲 0.0000
-2.0000 <s> 江枫渔火对愁眠 0.0000
-2.0000 <s> 渭城朝雨浥轻尘 0.0000
-2.0000 <s> 牧童遥指杏花村 0.0000
-2.0000 <s> 离离原上草 0.0000
-2.0000 <s> 秋收万颗子 0.0000
-2.0000 <s> 竹外桃花三两枝 0.0000
-2.0000 <s> 绝胜烟柳满皇都 0.0000
-2.0000 <s> 草长莺飞二月天 0.0000
-2.0000 <s> 莲叶何田田 0.0000
-2.0000 <s> 蒌蒿满地芦芽短 0.0000
-2.0000 <s> 蓬头稚子学垂钓 0.0000
-2.0000 <s> 西塞山前白鹭飞 0.0000
-2.0000 <s> 返景入深林 0.0000
-2.0000 <s> 遍插茱萸少一人 0.0000
-2.0000 <s> 遥知兄弟登高处 0.0000
-2.0000 <s> 霜叶红于二月花 0.0000
-2.0000 <s> 青青园中葵 0.0000
-2.0000 <s> 麦花雪白菜花稀 0.0000
-0.3010 一岁一枯荣 </s> -0.3010
-0.3010 一枝红杏出墙来 </s> -0.3010
-0.3010 一行白鹭上青天 </s> -0.3010
-0.3010 不及汪伦送我情 </s> -0.3010
-0.3010 两个黄鹂鸣翠柳 </s> -0.3010
-0.3010 侧坐莓苔草映身 </s> -0.3010
-0.3010 借问酒家何处有 </s> -0.3010
-0.3010 停车坐爱枫林晚 </s> -0.3010
-0.3010 复照青苔上 </s> -0.3010
-0.3010 客舍青青柳色新 </s> -0.3010
-0.3010 小叩柴扉久不开 </s> -0.3010
-0.3010 小溪泛尽却山行 </s> -0.3010
-0.3010 小荷才露尖尖角 </s> -0.3010
-0.3010 应怜屐齿印苍苔 </s> -0.3010
-0.3010 拂堤杨柳醉春烟 </s> -0.3010
-0.3010 接天莲叶无穷碧 </s> -0.3010
-0.3010 日出江花红胜火 </s> -0.3010
-0.3010 早有蜻蜓立上头 </s> -0.3010
-0.3010 映日荷花别样红 </s> -0.3010
-0.3010 春来江水绿如蓝 </s> -0.3010
-0.3010 春江水暖鸭先知 </s> -0.3010
-0.3010 春种一粒粟 </s> -0.3010
-0.3010 春色满园关不住 </s> -0.3010
-0.3010 最是一年春好处 </s> -0.3010
-0.3010 月落乌啼霜满天 </s> -0.3010
-0.3010 朝露待日晞 </s> -0.3010
-0.3010 桃花流水鳜鱼肥 </s> -0.3010
-0.3010 桃花潭水深千尺 </s> -0.3010
-0.3010 梅子金黄杏子肥 </s> -0.3010
-0.3010 梅子黄时日日晴 </s> -0.3010
-0.3010 正是河豚欲上时 </s> -0.3010
-0.3010 江南可采莲 </s> -0.3010
-0.3010 江枫渔火对愁眠 </s> -0.3010
-0.3010 渭城朝雨浥轻尘 </s> -0.3010
-0.3010 牧童遥指杏花村 </s> -0.3010
-0.3010 离离原上草 </s> -0.3010
-0.3010 秋收万颗子 </s> -0.3010
-0.3010 竹外桃花三两枝 </s> -0.3010
-0.3010 绝胜烟柳满皇都 </s> -0.3010
-0.3010 草长莺飞二月天 </s> -0.3010
-0.3010 莲叶何田田 </s> -0.3010
-0.3010 蒌蒿满地芦芽短 </s> -0.3010
-0.3010 蓬头稚子学垂钓 </s> -0.3010
-0.3010 西塞山前白鹭飞 </s> -0.3010
-0.3010 返景入深林 </s> -0.3010
-0.3010 遍插茱萸少一人 </s> -0.3010
-0.3010 遥知兄弟登高处 </s> -0.3010
-0.3010 霜叶红于二月花 </s> -0.3010
-0.3010 青青园中葵 </s> -0.3010
-0.3010 麦花雪白菜花稀 </s> -0.3010

\3-grams:
-0.3010 <s> 一岁一枯荣 </s>
-0.3010 <s> 一枝红杏出墙来 </s>
-0.3010 <s> 一行白鹭上青天 </s>
-0.3010 <s> 不及汪伦送我情 </s>
-0.3010 <s> 两个黄鹂鸣翠柳 </s>
-0.3010 <s> 侧坐莓苔草映身 </s>
-0.3010 <s> 借问酒家何处有 </s>
-0.3010 <s> 停车坐爱枫林晚 </s>
-0.3010 <s> 复照青苔上 </s>
-0.3010 <s> 客舍青青柳色新 </s>
-0.3010 <s> 小叩柴扉久不开 </s>
-0.3010 <s> 小溪泛尽却山行 </s>
-0.3010 <s> 小荷才露尖尖角 </s>
-0.3010 <s> 应怜屐齿印苍苔 </s>
-0.3010 <s> 拂堤杨柳醉春烟 </s>
-0.3010 <s> 接天莲叶无穷碧 </s>
-0.3010 <s> 日出江花红胜火 </s>
-0.3010 <s> 早有蜻蜓立上头 </s>
-0.3010 <s> 映日荷花别样红 </s>
-0.3010 <s> 春来江水绿如蓝 </s>
-0.3010 <s> 春江水暖鸭先知 </s>
-0.3010 <s> 春种一粒粟 </s>
-0.3010 <s> 春色满园关不住 </s>
-0.3010 <s> 最是一年春好处 </s>
-0.3010 <s> 月落乌啼霜满天 </s>
-0.3010 <s> 朝露待日晞 </s>
-0.3010 <s> 桃花流水鳜鱼肥 </s>
-0.3010 <s> 桃花潭水深千尺 </s>
-0.3010 <s> 梅子金黄杏子肥 </s>
-0.3010 <s> 梅子黄时日日晴 </s>
-0.3010 <s> 正是河豚欲上时 </s>
-0.3010 <s> 江南可采莲 </s>
-0.3010 <s> 江枫渔火对愁眠 </s>
-0.3010 <s> 渭城朝雨浥轻尘 </s>
-0.3010 <s> 牧童遥指杏花村 </s>
-0.3010 <s> 离离原上草 </s>
-0.3010 <s> 秋收万颗子 </s>
-0.3010 <s> 竹外桃花三两枝 </s>
-0.3010 <s> 绝胜烟柳满皇都 </s>
-0.3010 <s> 草长莺飞二月天 </s>
-0.3010 <s> 莲叶何田田 </s>
-0.3010 <s> 蒌蒿满地芦芽短 </s>
-0.3010 <s> 蓬头稚子学垂钓 </s>
-0.3010 <s> 西塞山前白鹭飞 </s>
-0.3010 <s> 返景入深林 </s>
-0.3010 <s> 遍插茱萸少一人 </s>
-0.3010 <s> 遥知兄弟登高处 </s>
-0.3010 <s> 霜叶红于二月花 </s>
-0.3010 <s> 青青园中葵 </s>
-0.3010 <s> 麦花雪白菜花稀 </s>

\end\
